{
  "w1": [
    [
      1.2453967332839966, 1.6830850839614868, -0.23863457143306732,
      0.5963023900985718, 0.4726981520652771, -0.10131337493658066,
      -0.06951161473989487, 0.9875239133834839
    ],
    [
      -0.6210315823554993, 1.1734148263931274, -0.29956915974617004,
      -1.206952452659607, 0.7063745856285095, 0.4828929603099823,
      1.1338251829147339, 0.6579316854476929
    ],
    [
      -2.0193381309509277, 0.6383484601974487, 1.2010488510131836,
      0.8284726738929749, -1.1928566694259644, 0.677140474319458,
      -0.6383201479911804, 0.7844706177711487
    ],
    [
      -1.047271966934204, 0.9275335073471069, 2.575613498687744,
      -0.5056695938110352, 1.8418397903442383, -0.2667992115020752,
      1.0385535955429077, 1.0176258087158203
    ]
  ],
  "b1": [
    -0.1338016837835312, -0.042066022753715515, -0.0070061408914625645,
    -0.08712830394506454, 0.011883056722581387, -0.0017505877185612917,
    -0.022523563355207443, 0.061898790299892426
  ],
  "w2": [
    [0.0878797173500061],
    [1.0516599416732788],
    [0.46420156955718994],
    [0.05837206542491913],
    [-0.41816622018814087],
    [0.007818839512765408],
    [0.386068731546402],
    [-1.794967532157898]
  ],
  "b2": [-0.19340234994888306]
}
